<?xml version="1.0"?>
<opencv_storage>
<cascade>
  <stageType>BOOST</stageType>
  <featureType>HAAR</featureType>
  <height>24</height>
  <width>24</width>
  <stageParams>
    <boostType>GAB</boostType>
    <minHitRate>8.9999997615814209e-01</minHitRate>
    <maxFalseAlarm>5.0000000000000000e-01</maxFalseAlarm>
    <weightTrimRate>9.4999998807907104e-01</weightTrimRate>
    <maxDepth>1</maxDepth>
    <maxWeakCount>100</maxWeakCount></stageParams>
  <featureParams>
    <maxCatCount>0</maxCatCount>
    <featSize>1</featSize>
    <mode>BASIC</mode></featureParams>
  <stageNum>4</stageNum>
  <stages>
    <!-- stage 0 -->
    <_>
      <maxWeakCount>2</maxWeakCount>
      <stageThreshold>-4.1451752185821533e-02</stageThreshold>
      <weakClassifiers>
        <_>
          <internalNodes>
            0 -1 0 1.1321693658828735e-01</internalNodes>
          <leafValues>
            -9.8214286565780640e-01 9.5238095521926880e-01</leafValues></_>
        <_>
          <internalNodes>
            0 -1 7 1.8929983675479889e-01</internalNodes>
          <leafValues>
            -9.8369860649108887e-01 9.4069111347198486e-01</leafValues></_></weakClassifiers></_>
    <!-- stage 1 -->
    <_>
      <maxWeakCount>3</maxWeakCount>
      <stageThreshold>-1.3660103082656860e+00</stageThreshold>
      <weakClassifiers>
        <_>
          <internalNodes>
            0 -1 8 1.5249958634376526e-01</internalNodes>
          <leafValues>
            -9.6237623691558838e-01 5.5000001192092896e-01</leafValues></_>
        <_>
          <internalNodes>
            0 -1 1 1.3384237885475159e-01</internalNodes>
          <leafValues>
            -8.7550514936447144e-01 6.2383455038070679e-01</leafValues></_>
        <_>
          <internalNodes>
            0 -1 9 -6.4509734511375427e-02</internalNodes>
          <leafValues>
            4.7187113761901855e-01 -8.7151753902435303e-01</leafValues></_></weakClassifiers></_>
    <!-- stage 2 -->
    <_>
      <maxWeakCount>3</maxWeakCount>
      <stageThreshold>-1.3742798566818237e+00</stageThreshold>
      <weakClassifiers>
        <_>
          <internalNodes>
            0 -1 4 2.7292329072952271e-01</internalNodes>
          <leafValues>
            -9.3423599004745483e-01 1.</leafValues></_>
        <_>
          <internalNodes>
            0 -1 5 -1.9828472286462784e-02</internalNodes>
          <leafValues>
            4.9000754952430725e-01 -8.6030596494674683e-01</leafValues></_>
        <_>
          <internalNodes>
            0 -1 3 -5.5965092033147812e-02</internalNodes>
          <leafValues>
            4.2026212811470032e-01 -9.2060947418212891e-01</leafValues></_></weakClassifiers></_>
    <!-- stage 3 -->
    <_>
      <maxWeakCount>2</maxWeakCount>
      <stageThreshold>-4.8421993851661682e-01</stageThreshold>
      <weakClassifiers>
        <_>
          <internalNodes>
            0 -1 6 2.9501432180404663e-01</internalNodes>
          <leafValues>
            -9.5266270637512207e-01 4.4444444775581360e-01</leafValues></_>
        <_>
          <internalNodes>
            0 -1 2 1.5971282124519348e-01</internalNodes>
          <leafValues>
            -9.0818440914154053e-01 4.6844276785850525e-01</leafValues></_></weakClassifiers></_></stages>
  <features>
    <_>
      <rects>
        <_>
          0 10 24 2 -1.</_>
        <_>
          8 10 8 2 3.</_></rects>
      <tilted>0</tilted></_>
    <_>
      <rects>
        <_>
          0 12 24 2 -1.</_>
        <_>
          8 12 8 2 3.</_></rects>
      <tilted>0</tilted></_>
    <_>
      <rects>
        <_>
          1 10 21 3 -1.</_>
        <_>
          8 10 7 3 3.</_></rects>
      <tilted>0</tilted></_>
    <_>
      <rects>
        <_>
          2 16 19 8 -1.</_>
        <_>
          2 20 19 4 2.</_></rects>
      <tilted>0</tilted></_>
    <_>
      <rects>
        <_>
          4 6 16 14 -1.</_>
        <_>
          4 6 8 7 2.</_>
        <_>
          12 13 8 7 2.</_></rects>
      <tilted>0</tilted></_>
    <_>
      <rects>
        <_>
          6 16 14 1 -1.</_>
        <_>
          13 16 7 1 2.</_></rects>
      <tilted>0</tilted></_>
    <_>
      <rects>
        <_>
          9 1 5 21 -1.</_>
        <_>
          9 8 5 7 3.</_></rects>
      <tilted>0</tilted></_>
    <_>
      <rects>
        <_>
          10 0 4 24 -1.</_>
        <_>
          10 8 4 8 3.</_></rects>
      <tilted>0</tilted></_>
    <_>
      <rects>
        <_>
          11 0 2 24 -1.</_>
        <_>
          11 8 2 8 3.</_></rects>
      <tilted>0</tilted></_>
    <_>
      <rects>
        <_>
          15 6 8 12 -1.</_>
        <_>
          19 6 4 12 2.</_></rects>
      <tilted>0</tilted></_></features></cascade>
</opencv_storage>
